92 50
</s> 0.008005 0.008839 -0.007661 -0.006556 0.002733 0.006042 0.001882 0.000423 -0.007207 0.004437 -0.008713 0.002499 -0.001503 -0.001914 -0.006631 -0.003764 0.005159 0.006051 0.005938 0.003195 0.003090 -0.007605 -0.008192 0.009939 0.007603 0.006180 -0.001208 0.008031 -0.000990 0.001469 -0.000298 -0.005966 0.002625 -0.002675 -0.007651 0.009508 0.008759 -0.002190 -0.000452 0.001018 -0.007275 -0.008014 0.009109 0.000126 -0.005165 -0.006084 -0.006153 0.003394 0.000403 0.002662 
classification -0.161308 -0.257338 0.262420 -0.219935 0.314456 -0.118592 0.155602 -0.021808 0.052953 0.300056 0.346020 0.191312 -0.015595 -0.190249 -0.217739 0.339731 0.398246 -0.253942 0.444647 0.192569 0.191761 0.160055 0.215017 -0.362562 -0.005800 -0.256211 -0.185036 0.024665 0.023235 -0.006381 0.009203 0.058883 0.041097 0.203747 -0.178315 0.478786 0.080197 -0.040418 0.478983 -0.339564 -0.057636 0.075069 0.217576 0.225314 0.330656 0.198093 -0.076222 -0.032590 0.498930 -0.251523 
clustering -0.153553 -0.276075 0.289116 -0.235517 0.331228 -0.120988 0.155865 -0.032132 0.046110 0.315598 0.369126 0.208915 -0.021286 -0.204262 -0.235227 0.372455 0.419767 -0.271549 0.482432 0.198425 0.189679 0.163980 0.242620 -0.387586 0.002344 -0.285666 -0.190917 0.027631 0.013098 -0.003465 0.012515 0.056961 0.032403 0.202809 -0.189108 0.504148 0.076474 -0.051406 0.493310 -0.364087 -0.065851 0.083660 0.241930 0.234589 0.337772 0.223464 -0.079471 -0.039493 0.523341 -0.255650 
using -0.158161 -0.241886 0.251249 -0.209869 0.299397 -0.089483 0.144976 -0.033862 0.032583 0.288564 0.318363 0.181439 -0.006362 -0.202660 -0.202825 0.339231 0.395999 -0.226403 0.447009 0.195316 0.162336 0.135681 0.200844 -0.355465 0.002295 -0.259431 -0.177074 0.004595 0.023161 -0.013456 0.016194 0.062601 0.023819 0.174284 -0.170822 0.475473 0.085367 -0.040024 0.467404 -0.327069 -0.058667 0.090933 0.216720 0.219284 0.322302 0.189038 -0.073691 -0.020025 0.474529 -0.245069 
based -0.158711 -0.257342 0.265508 -0.217203 0.299589 -0.104555 0.159068 -0.030929 0.039098 0.308803 0.339257 0.184133 -0.013823 -0.205462 -0.212194 0.342045 0.405593 -0.233131 0.456383 0.199592 0.174918 0.158117 0.218545 -0.349707 -0.009900 -0.247838 -0.169705 0.013673 0.005577 0.003896 0.019969 0.054418 0.034318 0.188425 -0.184813 0.467632 0.075360 -0.054029 0.459077 -0.327649 -0.055466 0.085416 0.226813 0.214720 0.328661 0.197760 -0.070587 -0.015397 0.485326 -0.248015 
computation -0.155508 -0.259757 0.260320 -0.227053 0.328410 -0.115035 0.154100 -0.035558 0.060192 0.306705 0.349108 0.201979 -0.012784 -0.201723 -0.214447 0.347854 0.417780 -0.253523 0.463381 0.194294 0.175160 0.164153 0.229750 -0.378882 0.001363 -0.278658 -0.192186 0.028496 0.010925 -0.012992 0.021129 0.070633 0.035175 0.211232 -0.166295 0.492302 0.077827 -0.051855 0.490017 -0.345189 -0.053727 0.087737 0.231747 0.219498 0.339873 0.191620 -0.078007 -0.035944 0.501982 -0.251200 
unsupervised -0.158940 -0.245701 0.261286 -0.215798 0.321456 -0.105234 0.153895 -0.032355 0.046517 0.313500 0.333723 0.210763 -0.016098 -0.207002 -0.225345 0.348305 0.408246 -0.254034 0.461765 0.183069 0.174115 0.157033 0.222254 -0.369214 -0.008009 -0.265880 -0.175148 0.028306 0.026185 -0.013864 0.012767 0.059055 0.031750 0.204950 -0.172700 0.487541 0.066625 -0.039197 0.484622 -0.334990 -0.045765 0.085125 0.216546 0.229463 0.336618 0.190283 -0.071691 -0.032507 0.505394 -0.260380 
approach -0.139010 -0.249025 0.251715 -0.222684 0.291382 -0.112680 0.142034 -0.014775 0.044220 0.280573 0.325650 0.192969 -0.006113 -0.192086 -0.202584 0.331439 0.382228 -0.235617 0.437504 0.187672 0.184257 0.152526 0.206565 -0.358682 -0.004622 -0.259122 -0.172924 0.012713 0.008876 -0.013072 0.019189 0.069935 0.030551 0.180012 -0.165967 0.462455 0.066916 -0.042868 0.458376 -0.320558 -0.055304 0.079180 0.214222 0.221842 0.326089 0.197985 -0.077058 -0.030118 0.484067 -0.247995 
reinforcement_learning -0.166533 -0.259616 0.267661 -0.225053 0.328880 -0.107811 0.148266 -0.021227 0.047613 0.321906 0.351795 0.215826 -0.007728 -0.204736 -0.229062 0.362885 0.408306 -0.245972 0.474911 0.207793 0.184026 0.164952 0.239494 -0.379364 0.005667 -0.281995 -0.185354 0.022647 0.025251 -0.015267 0.009172 0.062433 0.033891 0.218807 -0.183581 0.478928 0.073575 -0.037620 0.490210 -0.332424 -0.060105 0.083944 0.232644 0.221369 0.347051 0.193812 -0.066283 -0.039481 0.517637 -0.253264 
machine_learning -0.157082 -0.246508 0.265261 -0.216927 0.308550 -0.110634 0.159418 -0.016260 0.056222 0.306760 0.343520 0.202009 -0.010849 -0.197203 -0.228640 0.342684 0.415745 -0.245050 0.467426 0.203902 0.185734 0.144105 0.237506 -0.363424 -0.013178 -0.261159 -0.192454 0.014557 0.026789 -0.000027 0.011258 0.065498 0.026917 0.191423 -0.175474 0.491046 0.081869 -0.036955 0.484368 -0.331213 -0.054754 0.085610 0.223230 0.221899 0.333485 0.199533 -0.066442 -0.030702 0.493067 -0.258680 
data -0.144614 -0.244381 0.251177 -0.219752 0.320207 -0.097114 0.136591 -0.018399 0.041899 0.295679 0.335008 0.200024 -0.020041 -0.205101 -0.209750 0.337656 0.408378 -0.232317 0.437931 0.188174 0.182307 0.144052 0.227869 -0.368031 0.004662 -0.255390 -0.188263 0.017797 0.015865 -0.003472 0.019557 0.061946 0.033871 0.197114 -0.181498 0.470033 0.083023 -0.034767 0.476185 -0.336583 -0.052922 0.077304 0.232879 0.226949 0.331225 0.193627 -0.073027 -0.032120 0.482772 -0.251733 
information_retrieval -0.166012 -0.258311 0.270916 -0.230104 0.325252 -0.121913 0.163666 -0.030534 0.044856 0.322226 0.340795 0.207923 -0.022134 -0.194599 -0.229875 0.342878 0.419603 -0.247289 0.472303 0.203560 0.193189 0.156767 0.238547 -0.369343 -0.001037 -0.274704 -0.184403 0.032155 0.012779 -0.005149 0.016569 0.066620 0.036184 0.215650 -0.177879 0.495043 0.069435 -0.048167 0.493671 -0.331170 -0.048201 0.086030 0.222062 0.215855 0.346214 0.208632 -0.081752 -0.037569 0.505823 -0.266127 
model -0.138108 -0.249967 0.255139 -0.217601 0.299665 -0.104806 0.134438 -0.027738 0.044427 0.300017 0.321674 0.197533 -0.020659 -0.185296 -0.208171 0.331634 0.392895 -0.227863 0.426896 0.193190 0.175841 0.144167 0.219734 -0.352836 0.004295 -0.250502 -0.176707 0.026609 0.006894 -0.006151 0.023422 0.068645 0.024268 0.193929 -0.162401 0.460739 0.079351 -0.035754 0.468690 -0.321912 -0.053882 0.086432 0.208328 0.216548 0.315010 0.197794 -0.079160 -0.028620 0.486099 -0.238705 
application -0.149914 -0.256918 0.271561 -0.228422 0.322537 -0.101833 0.162630 -0.018070 0.046883 0.308357 0.337103 0.197760 -0.016309 -0.212464 -0.227263 0.357682 0.420255 -0.257171 0.456783 0.206949 0.185580 0.161820 0.221557 -0.375607 -0.010494 -0.261611 -0.191161 0.027215 0.010990 0.001556 0.009065 0.058781 0.044815 0.207409 -0.176215 0.493275 0.083912 -0.046626 0.492771 -0.328458 -0.044607 0.094289 0.229245 0.218834 0.329678 0.198202 -0.072879 -0.021953 0.503799 -0.251461 
analysis -0.146520 -0.255573 0.272925 -0.228691 0.323092 -0.100858 0.146132 -0.036218 0.052888 0.312475 0.361082 0.203625 -0.014839 -0.202419 -0.221609 0.345397 0.423477 -0.252498 0.465987 0.195544 0.198608 0.159941 0.238392 -0.365367 -0.005562 -0.267206 -0.184280 0.015268 0.024512 -0.001123 0.008382 0.071926 0.034895 0.206833 -0.191619 0.497301 0.078498 -0.051544 0.488584 -0.338921 -0.055849 0.093081 0.226882 0.224084 0.345974 0.214446 -0.067819 -0.023984 0.502465 -0.265641 
method -0.170446 -0.263982 0.263865 -0.236357 0.333089 -0.116420 0.162487 -0.035920 0.056301 0.317730 0.348891 0.209301 -0.008824 -0.213571 -0.233019 0.352546 0.421928 -0.266750 0.480117 0.200934 0.187840 0.161877 0.225203 -0.395909 -0.012745 -0.277467 -0.193790 0.013958 0.022929 -0.015327 0.013964 0.066252 0.048763 0.200720 -0.188958 0.513919 0.088918 -0.037869 0.513124 -0.352853 -0.059665 0.093624 0.243758 0.239989 0.353417 0.194227 -0.087584 -0.030400 0.512754 -0.257222 
system -0.147345 -0.264392 0.276707 -0.239854 0.325120 -0.115595 0.152678 -0.036241 0.057352 0.318620 0.332182 0.198983 -0.011682 -0.193053 -0.222826 0.340081 0.410003 -0.253918 0.463847 0.205824 0.177222 0.149109 0.221478 -0.374773 -0.011235 -0.275564 -0.185026 0.010437 0.023690 -0.000545 0.011519 0.069693 0.028740 0.188115 -0.167536 0.489490 0.081538 -0.051384 0.481376 -0.328814 -0.056672 0.090028 0.220230 0.217777 0.344997 0.191397 -0.075289 -0.034059 0.514155 -0.254924 
learning -0.141235 -0.259558 0.265217 -0.233307 0.305361 -0.107437 0.160301 -0.029488 0.051959 0.303058 0.342769 0.203408 -0.019567 -0.208378 -0.215664 0.341935 0.403828 -0.239771 0.456395 0.200000 0.187961 0.139973 0.230984 -0.373463 -0.002514 -0.268916 -0.180764 0.030107 0.011046 -0.001859 0.011403 0.058369 0.042639 0.202151 -0.186219 0.479705 0.073513 -0.040242 0.475490 -0.336420 -0.051369 0.073527 0.234017 0.222225 0.331454 0.200391 -0.062446 -0.020272 0.502817 -0.245089 
efficient -0.142558 -0.250120 0.265874 -0.221488 0.309188 -0.107569 0.152208 -0.026060 0.057589 0.302517 0.327951 0.195189 -0.006897 -0.201713 -0.218623 0.337933 0.393144 -0.248363 0.439642 0.186774 0.169608 0.155499 0.225064 -0.368100 0.002292 -0.263747 -0.175746 0.028505 0.015288 -0.012086 0.014279 0.055454 0.039200 0.199738 -0.170593 0.462816 0.068849 -0.043431 0.460427 -0.331077 -0.046620 0.076333 0.213774 0.216651 0.313943 0.198185 -0.073818 -0.019493 0.481277 -0.249056 
algorithm -0.153065 -0.261106 0.255390 -0.228266 0.326244 -0.109958 0.164314 -0.020925 0.042659 0.322344 0.327995 0.194598 -0.006226 -0.211516 -0.213730 0.353851 0.418857 -0.250799 0.457122 0.197998 0.179059 0.142559 0.213885 -0.375406 -0.004841 -0.256416 -0.179411 0.011464 0.026942 -0.008068 0.025208 0.060188 0.039357 0.196012 -0.171780 0.495788 0.075648 -0.034602 0.478158 -0.328029 -0.054693 0.089531 0.234229 0.231854 0.337824 0.194105 -0.086198 -0.019926 0.504190 -0.247290 
via -0.163024 -0.261150 0.258072 -0.230529 0.320484 -0.102283 0.154505 -0.020053 0.046822 0.302479 0.331800 0.193138 -0.011611 -0.206514 -0.222356 0.335565 0.410439 -0.235078 0.453457 0.204224 0.177296 0.142217 0.212236 -0.370918 -0.009006 -0.262098 -0.189373 0.028704 0.011750 -0.002536 0.025063 0.059560 0.025717 0.206229 -0.178854 0.487831 0.077228 -0.041858 0.486305 -0.329117 -0.059725 0.078801 0.235696 0.220000 0.325161 0.206355 -0.079119 -0.019500 0.507514 -0.243782 
adaptive -0.129019 -0.239060 0.241129 -0.193859 0.280699 -0.091567 0.127033 -0.014197 0.036534 0.281135 0.306323 0.173018 -0.006724 -0.183538 -0.207430 0.305274 0.366437 -0.217199 0.408930 0.177114 0.173182 0.129048 0.207779 -0.337833 -0.014432 -0.231265 -0.172738 0.014844 0.004397 -0.013004 0.018121 0.059074 0.023196 0.182255 -0.152246 0.437934 0.061192 -0.046292 0.438321 -0.306682 -0.042936 0.081158 0.215527 0.203974 0.291658 0.183421 -0.076261 -0.027436 0.459374 -0.219505 
large -0.161932 -0.264757 0.269661 -0.220506 0.326525 -0.097843 0.168848 -0.021903 0.037043 0.320369 0.333123 0.208343 -0.001950 -0.215354 -0.209489 0.348591 0.407585 -0.258778 0.457968 0.212076 0.186656 0.146116 0.234579 -0.385007 -0.008621 -0.256459 -0.196852 0.018838 0.008092 -0.010828 0.027868 0.062650 0.030060 0.208267 -0.176418 0.495153 0.081651 -0.047156 0.480516 -0.330119 -0.035487 0.097750 0.216685 0.219819 0.320778 0.200775 -0.083445 -0.026993 0.516164 -0.263155 
framework -0.153402 -0.259654 0.261409 -0.230074 0.312873 -0.096725 0.157007 -0.018454 0.053009 0.300552 0.330672 0.188399 -0.010861 -0.204620 -0.219483 0.343222 0.395361 -0.250179 0.449095 0.193874 0.175730 0.140532 0.206668 -0.355811 -0.006090 -0.258078 -0.182161 0.029202 0.007215 -0.011761 0.012526 0.062001 0.043258 0.196438 -0.174587 0.476515 0.079697 -0.054155 0.467552 -0.323104 -0.043280 0.086737 0.227419 0.226315 0.329279 0.189514 -0.078348 -0.022585 0.496248 -0.245557 
networks -0.151020 -0.254686 0.277455 -0.221830 0.307128 -0.110500 0.144850 -0.035979 0.052574 0.317794 0.340856 0.212507 -0.002741 -0.202981 -0.214639 0.345120 0.409422 -0.251260 0.457701 0.195232 0.172013 0.150798 0.227810 -0.373078 0.005219 -0.272952 -0.189629 0.026285 0.012823 -0.002330 0.012258 0.067114 0.036565 0.202459 -0.166907 0.487509 0.069419 -0.052445 0.486959 -0.326042 -0.041919 0.094276 0.225758 0.211347 0.333188 0.196765 -0.072401 -0.032788 0.511116 -0.252375 
segmentation -0.134563 -0.255531 0.255726 -0.209570 0.308269 -0.107100 0.140958 -0.022901 0.049694 0.291674 0.325298 0.186860 -0.003378 -0.186062 -0.200882 0.320307 0.387652 -0.240669 0.432321 0.184243 0.180335 0.148555 0.208580 -0.354018 0.007308 -0.252041 -0.177321 0.026475 0.019125 0.001968 0.024693 0.059974 0.041631 0.177142 -0.171182 0.448671 0.076510 -0.041821 0.462617 -0.317233 -0.050712 0.082310 0.223854 0.219141 0.321128 0.184895 -0.061403 -0.021097 0.481424 -0.232892 
fast -0.144896 -0.248413 0.258750 -0.226516 0.314039 -0.096279 0.141788 -0.033662 0.038315 0.294613 0.332738 0.194477 -0.020719 -0.197142 -0.213771 0.333939 0.392421 -0.246489 0.437148 0.202541 0.172176 0.146767 0.224965 -0.369622 -0.010185 -0.267565 -0.180167 0.011636 0.009374 -0.012723 0.018644 0.064872 0.026663 0.194460 -0.174747 0.478100 0.070448 -0.051344 0.473475 -0.332889 -0.041413 0.083218 0.228360 0.218421 0.321068 0.189720 -0.074338 -0.016211 0.479929 -0.254323 
ir -0.169429 -0.259628 0.285679 -0.240883 0.338767 -0.108170 0.161510 -0.029530 0.052680 0.315394 0.355857 0.205874 -0.003780 -0.219945 -0.230871 0.357846 0.418015 -0.252830 0.483915 0.197735 0.199899 0.158359 0.240932 -0.389693 0.001815 -0.266769 -0.185036 0.034330 0.008046 0.002666 0.005964 0.064929 0.036268 0.216922 -0.190727 0.508529 0.074855 -0.039022 0.510774 -0.360203 -0.059798 0.092032 0.245456 0.226423 0.348686 0.208573 -0.066207 -0.040764 0.523796 -0.269902 
detection -0.143626 -0.249511 0.256535 -0.221286 0.308646 -0.107038 0.134615 -0.021774 0.039208 0.285202 0.318284 0.183022 -0.021816 -0.194124 -0.208117 0.325901 0.374826 -0.222875 0.430296 0.171569 0.176002 0.152834 0.210444 -0.344458 -0.006511 -0.240850 -0.176157 0.018952 0.016454 -0.003780 0.015071 0.062489 0.026466 0.199567 -0.178267 0.445680 0.079870 -0.032586 0.441100 -0.317929 -0.046021 0.075068 0.209078 0.213330 0.305181 0.191860 -0.073315 -0.033749 0.482811 -0.249149 
models -0.159163 -0.243460 0.249871 -0.218181 0.296962 -0.098616 0.154293 -0.024201 0.046202 0.302571 0.338790 0.201138 -0.004059 -0.190902 -0.221893 0.329930 0.384188 -0.238346 0.451751 0.187207 0.176355 0.149470 0.210321 -0.359723 -0.006244 -0.256139 -0.185488 0.024059 0.014481 -0.007698 0.017363 0.050032 0.026816 0.192000 -0.168890 0.472201 0.073421 -0.048213 0.466878 -0.312870 -0.040155 0.078242 0.224253 0.219607 0.325609 0.202192 -0.063254 -0.023349 0.484818 -0.252107 
online -0.157540 -0.247023 0.263484 -0.223060 0.316818 -0.110566 0.141949 -0.020098 0.043346 0.304479 0.323797 0.199132 -0.010465 -0.194277 -0.225560 0.346955 0.393848 -0.231058 0.442293 0.198630 0.167697 0.141794 0.208072 -0.368347 -0.008594 -0.253972 -0.178682 0.018723 0.021833 0.004716 0.016603 0.072225 0.030430 0.197292 -0.175022 0.462089 0.072503 -0.036003 0.469231 -0.329457 -0.050302 0.084832 0.223247 0.215647 0.322545 0.187866 -0.074895 -0.032233 0.483069 -0.239923 
new -0.142175 -0.234979 0.261271 -0.226362 0.312255 -0.107757 0.139518 -0.028986 0.047653 0.296244 0.336390 0.205440 -0.022167 -0.203534 -0.209389 0.333557 0.393938 -0.239400 0.436343 0.180623 0.179296 0.136253 0.226574 -0.365898 -0.008130 -0.258954 -0.178336 0.024286 0.011426 -0.010261 0.022880 0.063781 0.040795 0.191561 -0.171695 0.454365 0.063268 -0.038954 0.475451 -0.314259 -0.060046 0.081608 0.229669 0.218195 0.318068 0.198955 -0.078187 -0.035850 0.482564 -0.235926 
ensemble -0.165440 -0.257482 0.261615 -0.236264 0.317101 -0.107342 0.162509 -0.020523 0.050002 0.320495 0.350722 0.209029 -0.006490 -0.212273 -0.225613 0.339932 0.411071 -0.248503 0.474672 0.192768 0.193248 0.147866 0.225983 -0.384993 0.002301 -0.274969 -0.194783 0.022422 0.016568 -0.002719 0.021863 0.066362 0.042040 0.205168 -0.188156 0.493212 0.079931 -0.037454 0.496320 -0.341342 -0.050916 0.093340 0.236805 0.215196 0.342965 0.204867 -0.074211 -0.041635 0.508797 -0.267298 
features -0.148379 -0.241091 0.257114 -0.217096 0.292588 -0.095444 0.152332 -0.018944 0.045271 0.295743 0.330286 0.183652 -0.006943 -0.184301 -0.201429 0.325989 0.375329 -0.236774 0.424076 0.189642 0.173424 0.145942 0.219512 -0.343366 -0.009685 -0.242664 -0.166988 0.027728 0.012484 -0.009709 0.007829 0.056927 0.028007 0.200362 -0.161743 0.450771 0.073516 -0.049849 0.447176 -0.308244 -0.053861 0.074592 0.213206 0.206573 0.309730 0.186790 -0.065115 -0.039643 0.470225 -0.244037 
systems -0.156144 -0.266659 0.280310 -0.232758 0.323357 -0.119096 0.159135 -0.015843 0.060300 0.335428 0.360170 0.222863 -0.017036 -0.212296 -0.225673 0.366122 0.434791 -0.249840 0.479114 0.208573 0.191745 0.171265 0.238989 -0.402419 -0.015696 -0.288152 -0.199978 0.015684 0.024108 -0.006300 0.005716 0.070527 0.031285 0.207390 -0.191661 0.503009 0.078393 -0.039319 0.498159 -0.352593 -0.041665 0.096817 0.235802 0.241428 0.344385 0.207981 -0.068038 -0.028803 0.520862 -0.266453 
applications -0.140911 -0.256166 0.268336 -0.214752 0.316387 -0.113882 0.152408 -0.013581 0.055308 0.293264 0.342476 0.203738 -0.010215 -0.200914 -0.224953 0.345326 0.397023 -0.248098 0.451057 0.183908 0.179067 0.142322 0.209618 -0.364332 0.001023 -0.270514 -0.181402 0.012034 0.015917 0.004908 0.008593 0.069973 0.042113 0.194530 -0.178793 0.472903 0.068785 -0.043244 0.469101 -0.325178 -0.056572 0.083197 0.214229 0.230238 0.322470 0.193110 -0.068123 -0.040869 0.489912 -0.252063 
automatic -0.155999 -0.254405 0.250045 -0.221709 0.301295 -0.091661 0.152307 -0.021933 0.049776 0.297343 0.336670 0.194131 -0.011564 -0.205412 -0.208694 0.336788 0.400019 -0.224913 0.435516 0.184481 0.171818 0.153900 0.221357 -0.358932 -0.006845 -0.244960 -0.167479 0.019170 0.019023 -0.014315 0.018562 0.068765 0.035251 0.200508 -0.169827 0.466634 0.081658 -0.047652 0.459323 -0.324597 -0.043515 0.089009 0.224274 0.217496 0.329275 0.182807 -0.065458 -0.031411 0.473608 -0.250018 
prediction -0.167604 -0.266725 0.260857 -0.240784 0.318242 -0.117312 0.159796 -0.024578 0.063521 0.313035 0.348885 0.218549 -0.011334 -0.201230 -0.231728 0.356545 0.419999 -0.258634 0.462176 0.196469 0.185118 0.159518 0.228090 -0.389346 0.004858 -0.266502 -0.194157 0.029349 0.017446 -0.009097 0.020948 0.060199 0.028671 0.209713 -0.171614 0.486389 0.088451 -0.043570 0.504715 -0.350603 -0.051657 0.082840 0.231692 0.234173 0.333606 0.214972 -0.070039 -0.038679 0.506398 -0.263421 
dynamic -0.144939 -0.247416 0.245077 -0.222809 0.307077 -0.092356 0.151101 -0.026061 0.052223 0.294721 0.331286 0.195086 -0.014550 -0.197323 -0.221451 0.326142 0.397421 -0.228791 0.434690 0.179434 0.173236 0.145789 0.221591 -0.351960 -0.009886 -0.258414 -0.181347 0.018025 0.017016 -0.005627 0.005557 0.062786 0.021865 0.182954 -0.174394 0.470228 0.064670 -0.037123 0.457335 -0.323693 -0.054521 0.088654 0.219581 0.207960 0.310576 0.197906 -0.071594 -0.034831 0.487739 -0.242332 
network -0.148807 -0.249297 0.259726 -0.210227 0.303487 -0.110936 0.142953 -0.021862 0.052641 0.287917 0.321162 0.193795 -0.004375 -0.199228 -0.206328 0.330341 0.379630 -0.242662 0.436580 0.184111 0.171894 0.146999 0.219664 -0.360033 -0.014054 -0.256376 -0.165392 0.018831 0.012355 -0.004788 0.005128 0.048905 0.040493 0.190329 -0.172794 0.465505 0.080904 -0.033504 0.459288 -0.314961 -0.058340 0.076810 0.210960 0.214290 0.306623 0.181598 -0.074605 -0.021222 0.475589 -0.243935 
kernel -0.162306 -0.255669 0.279331 -0.239224 0.321500 -0.117037 0.165819 -0.025640 0.056207 0.321626 0.354827 0.202048 -0.019252 -0.210012 -0.233072 0.341330 0.405301 -0.250622 0.470992 0.192438 0.191112 0.157988 0.236276 -0.373522 0.005399 -0.275513 -0.181930 0.020534 0.025573 -0.012285 0.010642 0.057295 0.041236 0.213693 -0.189994 0.499627 0.071722 -0.053962 0.491694 -0.351200 -0.047068 0.096667 0.242133 0.216529 0.337270 0.199828 -0.070464 -0.025236 0.514245 -0.267006 
object -0.148656 -0.237281 0.254011 -0.209572 0.283409 -0.100741 0.151337 -0.017278 0.037736 0.273811 0.317233 0.176317 -0.007881 -0.192695 -0.201163 0.327598 0.381462 -0.236032 0.431592 0.187213 0.168096 0.148333 0.208586 -0.332767 -0.005651 -0.248611 -0.164432 0.013240 0.004592 -0.014109 0.013427 0.055145 0.025449 0.179692 -0.170650 0.436958 0.060644 -0.042073 0.451263 -0.313945 -0.037942 0.086054 0.211003 0.211497 0.309005 0.184348 -0.073480 -0.019030 0.455254 -0.231604 
hierarchical -0.133110 -0.238658 0.236646 -0.213284 0.292083 -0.092069 0.142025 -0.014806 0.035568 0.287886 0.314416 0.182688 -0.018086 -0.178964 -0.196008 0.313322 0.370443 -0.225314 0.410713 0.184765 0.175226 0.136984 0.200900 -0.341684 -0.006573 -0.240242 -0.170415 0.011998 0.005991 -0.006496 0.022479 0.052991 0.034906 0.182996 -0.160919 0.439746 0.074421 -0.043911 0.431143 -0.297815 -0.046059 0.076855 0.199637 0.201054 0.289724 0.186940 -0.060677 -0.017572 0.443607 -0.226646 
automated -0.137964 -0.226989 0.226019 -0.201764 0.279606 -0.094089 0.132536 -0.014114 0.043743 0.266617 0.292280 0.187149 -0.013554 -0.181329 -0.192476 0.309761 0.355953 -0.220642 0.414505 0.177665 0.165571 0.142786 0.208652 -0.322777 -0.011174 -0.233411 -0.151933 0.022481 0.015845 -0.002932 0.014494 0.057847 0.021403 0.176064 -0.163403 0.422805 0.057183 -0.040628 0.423562 -0.305169 -0.052788 0.074445 0.213077 0.191391 0.290647 0.182291 -0.063756 -0.023242 0.447040 -0.224712 
methods -0.157102 -0.236316 0.257568 -0.221895 0.305969 -0.096291 0.152133 -0.034145 0.057567 0.295242 0.334268 0.201317 -0.020607 -0.195466 -0.220956 0.336353 0.393256 -0.229752 0.438774 0.191348 0.174835 0.139519 0.215310 -0.367579 0.004506 -0.262609 -0.167557 0.019525 0.021227 -0.007257 0.017647 0.068247 0.031836 0.183080 -0.164481 0.459890 0.064034 -0.035872 0.470597 -0.317470 -0.059065 0.086645 0.224701 0.207604 0.324501 0.185297 -0.065054 -0.033592 0.495549 -0.250670 
information -0.139028 -0.258503 0.256887 -0.207942 0.301273 -0.113291 0.137029 -0.031043 0.058672 0.296447 0.334788 0.202271 -0.021269 -0.189683 -0.208000 0.339701 0.401559 -0.242901 0.443379 0.191644 0.173434 0.155137 0.207475 -0.363658 0.005460 -0.249029 -0.180379 0.024855 0.006920 -0.011770 0.008244 0.059208 0.025651 0.199051 -0.166835 0.466665 0.077164 -0.046374 0.457320 -0.314819 -0.047385 0.088081 0.211442 0.211111 0.309315 0.197068 -0.079015 -0.028181 0.484141 -0.240372 
novel -0.140243 -0.241249 0.243797 -0.214864 0.288467 -0.101882 0.149948 -0.019370 0.032328 0.294297 0.325663 0.183214 -0.010009 -0.186757 -0.191856 0.324296 0.390687 -0.230975 0.424175 0.190761 0.167291 0.134360 0.214452 -0.342911 -0.006612 -0.244346 -0.164310 0.010515 0.017332 0.007741 0.017262 0.055651 0.026825 0.184905 -0.174151 0.458498 0.072177 -0.048486 0.442227 -0.317152 -0.042778 0.068072 0.210562 0.214495 0.300052 0.184497 -0.070416 -0.036437 0.460065 -0.235889 
feature_selection -0.158645 -0.248560 0.264835 -0.218540 0.313908 -0.107361 0.155125 -0.025166 0.055183 0.310975 0.329677 0.194950 -0.016860 -0.202362 -0.224989 0.348570 0.403017 -0.234352 0.458014 0.202971 0.180339 0.155779 0.225443 -0.357687 -0.010048 -0.256334 -0.177217 0.015568 0.012471 0.001366 0.018683 0.062147 0.029198 0.205869 -0.167293 0.483815 0.085621 -0.038514 0.466177 -0.334826 -0.048114 0.091071 0.231006 0.217485 0.327055 0.201879 -0.084401 -0.021726 0.492891 -0.254729 
hybrid -0.155019 -0.249835 0.248344 -0.217513 0.312663 -0.101657 0.154512 -0.015897 0.045846 0.303784 0.338952 0.206350 -0.020802 -0.197965 -0.205763 0.332018 0.392751 -0.234127 0.450271 0.184057 0.179174 0.155550 0.226652 -0.367822 -0.004912 -0.264102 -0.182478 0.015405 0.025738 -0.005073 0.021058 0.068685 0.035595 0.200356 -0.177231 0.475464 0.076290 -0.049490 0.476407 -0.327947 -0.063418 0.071502 0.232092 0.211523 0.325231 0.185850 -0.080010 -0.037770 0.494067 -0.244351 
scale -0.150586 -0.263887 0.249943 -0.229012 0.322473 -0.102929 0.137234 -0.007155 0.054907 0.297617 0.321344 0.189541 -0.004499 -0.184205 -0.230257 0.352272 0.385304 -0.248176 0.449571 0.185917 0.182170 0.142623 0.233456 -0.376880 -0.003080 -0.250792 -0.193106 0.033014 0.027055 -0.008399 0.008850 0.048872 0.036292 0.198630 -0.174310 0.472522 0.061732 -0.034962 0.482793 -0.329358 -0.046127 0.084916 0.215638 0.222128 0.317954 0.184272 -0.070210 -0.016031 0.486585 -0.254492 
images -0.152898 -0.263158 0.276462 -0.237332 0.327709 -0.118394 0.164012 -0.018292 0.056397 0.308277 0.345682 0.209008 -0.003290 -0.208676 -0.216736 0.364644 0.414647 -0.251519 0.464068 0.211254 0.194064 0.164694 0.219354 -0.387185 -0.009410 -0.262744 -0.189758 0.026600 0.009762 -0.000971 0.010577 0.060185 0.047517 0.208010 -0.186947 0.504432 0.077528 -0.037896 0.496811 -0.354065 -0.052204 0.081622 0.229764 0.229309 0.343394 0.208399 -0.085882 -0.024771 0.528395 -0.260142 
semantic -0.156591 -0.264133 0.279370 -0.245682 0.318774 -0.120309 0.157690 -0.035494 0.043261 0.321578 0.359810 0.206629 -0.008508 -0.200368 -0.231822 0.356914 0.424645 -0.255553 0.470662 0.205052 0.195045 0.162509 0.224412 -0.389632 -0.002887 -0.274917 -0.195570 0.031774 0.023103 0.004226 0.019205 0.058052 0.039054 0.210031 -0.182351 0.487530 0.085971 -0.047970 0.502169 -0.337474 -0.053236 0.091884 0.238563 0.237005 0.347354 0.211927 -0.075160 -0.023513 0.525629 -0.263333 
problem -0.158439 -0.248803 0.270178 -0.226286 0.306904 -0.118321 0.158722 -0.019768 0.058577 0.313168 0.333866 0.200304 -0.013259 -0.197659 -0.219504 0.348206 0.411314 -0.241260 0.467365 0.205443 0.177338 0.158026 0.215727 -0.372996 -0.007881 -0.274373 -0.187116 0.028768 0.025832 -0.009438 0.007471 0.067906 0.033875 0.210373 -0.186320 0.489384 0.085890 -0.042576 0.474295 -0.333217 -0.045773 0.076081 0.238301 0.214937 0.333666 0.210793 -0.071227 -0.037671 0.509678 -0.258608 
robust -0.146956 -0.239563 0.257294 -0.225625 0.308639 -0.110300 0.144785 -0.032833 0.043803 0.294593 0.326305 0.196588 -0.020401 -0.197978 -0.211347 0.342935 0.387558 -0.244592 0.450185 0.179243 0.174449 0.147165 0.220241 -0.355275 -0.008668 -0.261371 -0.179150 0.009497 0.015627 0.000449 0.022680 0.065007 0.040981 0.205053 -0.183177 0.467845 0.074847 -0.045817 0.458169 -0.315323 -0.059367 0.068840 0.228401 0.217363 0.323511 0.189702 -0.067623 -0.022935 0.492496 -0.257378 
multi -0.136514 -0.251116 0.247469 -0.212342 0.307461 -0.094513 0.145263 -0.019813 0.046033 0.285561 0.331044 0.201722 -0.019362 -0.205649 -0.203827 0.329881 0.392230 -0.233460 0.449364 0.194195 0.168191 0.148603 0.209085 -0.364322 -0.008562 -0.256053 -0.170281 0.023189 0.025171 -0.004902 0.022909 0.050978 0.043457 0.187413 -0.176454 0.460789 0.076779 -0.052008 0.467556 -0.322363 -0.048022 0.084356 0.224558 0.212130 0.313962 0.180457 -0.076794 -0.032588 0.476729 -0.243487 
multiple -0.161513 -0.249983 0.254378 -0.231522 0.303394 -0.107371 0.160474 -0.033512 0.048137 0.295772 0.329242 0.205642 -0.009505 -0.196891 -0.222275 0.333623 0.390588 -0.246219 0.456810 0.199771 0.188817 0.146648 0.221014 -0.369168 -0.012491 -0.268654 -0.175100 0.029531 0.010518 -0.008608 0.024049 0.054820 0.039125 0.198155 -0.180888 0.471779 0.073741 -0.049791 0.477742 -0.328192 -0.047219 0.074029 0.228947 0.212063 0.335740 0.192186 -0.079525 -0.021059 0.495983 -0.249368 
type -0.140541 -0.240887 0.255373 -0.213287 0.310440 -0.098181 0.141824 -0.031240 0.039664 0.295418 0.329171 0.196383 -0.009474 -0.187496 -0.202406 0.340183 0.386277 -0.236015 0.437210 0.177346 0.171767 0.152655 0.214090 -0.356150 -0.013709 -0.262611 -0.169039 0.017101 0.017284 -0.009422 0.015218 0.048444 0.025166 0.181507 -0.165284 0.460188 0.066074 -0.033381 0.466299 -0.320129 -0.049513 0.069411 0.228067 0.211177 0.313270 0.183749 -0.069834 -0.021700 0.483212 -0.244265 
time_series -0.131563 -0.238619 0.237114 -0.199773 0.299591 -0.090445 0.143684 -0.032052 0.037156 0.291168 0.319074 0.187296 -0.021401 -0.178121 -0.204522 0.317119 0.374910 -0.232284 0.420234 0.188357 0.178090 0.135995 0.196522 -0.343073 -0.007322 -0.244545 -0.174834 0.015367 0.022397 -0.000891 0.025605 0.048838 0.041820 0.174235 -0.173993 0.449926 0.078196 -0.036578 0.433499 -0.301840 -0.056235 0.075710 0.205314 0.209626 0.296561 0.174308 -0.066564 -0.022290 0.472406 -0.231122 
wireless_sensor_networks -0.139958 -0.237589 0.258380 -0.219560 0.309276 -0.102807 0.150507 -0.016623 0.035719 0.293697 0.332274 0.182990 -0.014078 -0.191596 -0.208977 0.340280 0.401944 -0.233443 0.435146 0.194769 0.181352 0.140857 0.218032 -0.354503 0.000036 -0.247803 -0.166853 0.019988 0.007894 -0.004910 0.022950 0.053014 0.027963 0.190206 -0.182328 0.467592 0.070701 -0.046284 0.462258 -0.321739 -0.058357 0.076716 0.213786 0.217391 0.324810 0.180387 -0.063876 -0.035479 0.489320 -0.254865 
identification -0.145184 -0.239722 0.246833 -0.209970 0.298704 -0.094929 0.138506 -0.025424 0.058023 0.286386 0.320239 0.188155 -0.016818 -0.197328 -0.200507 0.328825 0.386677 -0.237133 0.418521 0.173998 0.182960 0.143094 0.203377 -0.337585 -0.009735 -0.245404 -0.176597 0.015362 0.017158 0.000049 0.004366 0.056676 0.026371 0.182605 -0.173025 0.453483 0.068019 -0.041627 0.455591 -0.304154 -0.044102 0.078091 0.202929 0.216505 0.308531 0.182873 -0.067365 -0.020978 0.465033 -0.245443 
distributed -0.137785 -0.242133 0.259594 -0.208361 0.295680 -0.108294 0.148935 -0.016293 0.054498 0.288719 0.329121 0.195917 -0.018363 -0.190891 -0.214083 0.324322 0.376033 -0.232162 0.433987 0.183548 0.171365 0.141643 0.205479 -0.343631 -0.003420 -0.258433 -0.163803 0.025028 0.007411 -0.016251 0.007462 0.057498 0.035570 0.201600 -0.171794 0.455481 0.068692 -0.040642 0.462912 -0.316620 -0.049689 0.071535 0.222564 0.216665 0.310122 0.188993 -0.080562 -0.026275 0.485056 -0.243692 
combining -0.150355 -0.239823 0.241882 -0.216786 0.290072 -0.097236 0.141100 -0.024743 0.035669 0.295464 0.328956 0.199006 -0.006149 -0.183989 -0.205224 0.320012 0.386122 -0.235669 0.435436 0.191478 0.171779 0.139855 0.203034 -0.348598 -0.014198 -0.254835 -0.173411 0.013196 0.011979 -0.007293 0.022499 0.067053 0.034781 0.183433 -0.163731 0.458100 0.072995 -0.038442 0.465585 -0.314674 -0.042857 0.084848 0.219601 0.215170 0.322123 0.194801 -0.071544 -0.036573 0.487602 -0.239233 
feature -0.137554 -0.244539 0.257266 -0.214402 0.308318 -0.112623 0.137459 -0.032215 0.055897 0.299918 0.320714 0.189133 -0.008279 -0.193209 -0.209396 0.317559 0.389222 -0.241155 0.431721 0.175667 0.182356 0.143473 0.205874 -0.355110 -0.004017 -0.259273 -0.174007 0.012768 0.017851 0.002875 0.006651 0.048788 0.027968 0.187760 -0.169353 0.447290 0.074506 -0.044947 0.459930 -0.323745 -0.056158 0.073373 0.219770 0.218042 0.321811 0.192122 -0.061466 -0.035691 0.478517 -0.234206 
image -0.153085 -0.236333 0.250138 -0.222351 0.307275 -0.111522 0.138218 -0.024736 0.050890 0.289324 0.326851 0.185701 -0.004435 -0.183209 -0.203080 0.330632 0.392422 -0.223194 0.425778 0.180592 0.179618 0.146598 0.214371 -0.346060 0.002127 -0.248754 -0.161125 0.018851 0.023627 0.001230 0.013785 0.054221 0.027940 0.193006 -0.170718 0.452027 0.070786 -0.050926 0.444852 -0.314629 -0.049356 0.077076 0.220599 0.218380 0.306221 0.178656 -0.077296 -0.037798 0.476648 -0.247909 
evaluation -0.149331 -0.255155 0.258386 -0.222744 0.297579 -0.101967 0.142749 -0.027879 0.039441 0.295219 0.331160 0.197949 -0.011407 -0.198524 -0.202887 0.347065 0.391685 -0.232728 0.438379 0.191407 0.170115 0.146704 0.225411 -0.357835 -0.014745 -0.268043 -0.188866 0.020878 0.019413 -0.011839 0.012014 0.059465 0.026747 0.201950 -0.166167 0.464034 0.079255 -0.047036 0.463258 -0.320533 -0.051874 0.094923 0.225748 0.219536 0.322796 0.192795 -0.077355 -0.024833 0.481529 -0.236819 
local -0.142671 -0.260640 0.257034 -0.229980 0.317340 -0.096048 0.147682 -0.034289 0.047843 0.297779 0.326312 0.189051 -0.013479 -0.201901 -0.218883 0.337155 0.399201 -0.236839 0.443565 0.182695 0.167438 0.142351 0.225135 -0.365341 -0.007363 -0.264872 -0.176703 0.017484 0.006588 -0.004171 0.012740 0.061669 0.043873 0.189786 -0.172725 0.477841 0.069586 -0.042053 0.474004 -0.315294 -0.050350 0.082332 0.230888 0.227429 0.311940 0.190666 -0.074365 -0.025325 0.503867 -0.248001 
speech -0.139476 -0.247699 0.252213 -0.225781 0.296868 -0.101210 0.150550 -0.015153 0.054706 0.307964 0.328114 0.201257 -0.010929 -0.198243 -0.208848 0.335334 0.394935 -0.246580 0.439101 0.192701 0.166614 0.150535 0.207464 -0.351021 -0.002084 -0.257048 -0.181622 0.023496 0.019546 0.000177 0.025633 0.059066 0.038494 0.197373 -0.178366 0.460901 0.074519 -0.036884 0.464432 -0.334252 -0.061191 0.080727 0.218729 0.210317 0.326509 0.201864 -0.062825 -0.034653 0.491905 -0.248269 
comparison -0.146435 -0.268602 0.267240 -0.239396 0.308318 -0.111000 0.154181 -0.014918 0.065884 0.307677 0.353906 0.213563 -0.012583 -0.196089 -0.224255 0.358151 0.414359 -0.242429 0.454011 0.198911 0.195183 0.155126 0.223696 -0.369003 0.006159 -0.278318 -0.196806 0.016595 0.023767 -0.014879 0.011338 0.055129 0.026070 0.210554 -0.190131 0.484230 0.082688 -0.042076 0.483502 -0.348709 -0.058046 0.080298 0.223313 0.223327 0.338044 0.200393 -0.075109 -0.026221 0.509495 -0.252717 
applied -0.143030 -0.247448 0.258108 -0.219845 0.307196 -0.093602 0.133303 -0.026374 0.042593 0.287810 0.330567 0.186555 -0.007174 -0.200661 -0.201146 0.332106 0.386417 -0.232988 0.421420 0.193153 0.164878 0.134526 0.202252 -0.344050 -0.003012 -0.260265 -0.180434 0.013611 0.011208 -0.006828 0.005332 0.067437 0.027027 0.192845 -0.171711 0.448462 0.065650 -0.035810 0.455649 -0.309239 -0.042974 0.077961 0.224767 0.202521 0.305273 0.190866 -0.078327 -0.036324 0.469208 -0.241268 
optimal -0.129159 -0.225493 0.228824 -0.191266 0.283465 -0.095762 0.143653 -0.024332 0.038809 0.272940 0.297865 0.186552 -0.017812 -0.184350 -0.187068 0.299236 0.360028 -0.219150 0.410310 0.174409 0.168584 0.136193 0.189711 -0.335988 -0.009063 -0.227496 -0.157952 0.010487 0.023998 -0.002009 0.002196 0.046899 0.023481 0.179259 -0.164122 0.429982 0.069023 -0.042504 0.425815 -0.294428 -0.053768 0.066732 0.201815 0.195477 0.299456 0.167370 -0.063987 -0.032156 0.435742 -0.233195 
fuzzy -0.163480 -0.278507 0.284594 -0.233974 0.333230 -0.111024 0.157286 -0.032547 0.051116 0.318935 0.360539 0.215994 -0.008776 -0.206345 -0.240722 0.373279 0.423426 -0.268026 0.471029 0.206780 0.205409 0.163659 0.234697 -0.374600 -0.002719 -0.280252 -0.182109 0.013376 0.019585 -0.010999 0.009017 0.054230 0.044018 0.208702 -0.177737 0.495618 0.075543 -0.055798 0.511452 -0.351281 -0.047717 0.086406 0.237101 0.237996 0.351444 0.220328 -0.073058 -0.035357 0.521751 -0.272000 
improved -0.149148 -0.247368 0.251344 -0.216643 0.293213 -0.107876 0.146416 -0.025845 0.049106 0.293421 0.319605 0.201065 -0.022874 -0.197675 -0.200675 0.326130 0.392513 -0.224393 0.439749 0.179738 0.162762 0.140695 0.216096 -0.354909 0.005400 -0.252527 -0.173150 0.010409 0.018176 -0.008162 0.019879 0.053857 0.042836 0.177987 -0.176411 0.465646 0.075920 -0.037517 0.462857 -0.323900 -0.060930 0.076050 0.213285 0.208047 0.308673 0.193199 -0.072436 -0.028901 0.467173 -0.228726 
joint -0.137322 -0.239426 0.252137 -0.205703 0.290250 -0.109088 0.130523 -0.026225 0.046006 0.275801 0.308034 0.189743 -0.003191 -0.191305 -0.208755 0.314591 0.383976 -0.229958 0.423047 0.178164 0.160984 0.146724 0.215575 -0.342461 -0.009355 -0.237526 -0.174126 0.023547 0.010888 -0.009314 0.012211 0.051006 0.028809 0.178397 -0.171705 0.435210 0.064404 -0.040014 0.445919 -0.306887 -0.047065 0.084073 0.208913 0.196442 0.299555 0.190834 -0.058607 -0.020975 0.468943 -0.230879 
topic -0.126784 -0.204576 0.212814 -0.186770 0.249543 -0.079911 0.117727 -0.029193 0.042813 0.252207 0.262773 0.167265 -0.000177 -0.152797 -0.180550 0.281145 0.332517 -0.189139 0.355213 0.162444 0.154134 0.111952 0.179680 -0.294783 -0.011505 -0.220434 -0.141448 0.015234 0.008799 -0.002253 0.014860 0.051787 0.023851 0.168756 -0.132807 0.381366 0.057514 -0.038393 0.380153 -0.274772 -0.036588 0.064838 0.173194 0.173786 0.254774 0.165973 -0.067168 -0.027284 0.396966 -0.193386 
approaches -0.166638 -0.243488 0.274984 -0.224362 0.329713 -0.098876 0.152147 -0.036343 0.034415 0.319154 0.337777 0.207939 -0.007463 -0.203088 -0.234768 0.358835 0.408677 -0.251382 0.477078 0.194983 0.188005 0.163966 0.223759 -0.381258 -0.016582 -0.266177 -0.169929 0.012542 0.006250 -0.004512 0.014920 0.056667 0.017349 0.213146 -0.194772 0.502823 0.088489 -0.056912 0.479806 -0.338754 -0.048909 0.095982 0.236799 0.223179 0.340658 0.193100 -0.080729 -0.021963 0.501003 -0.268962 
d -0.158936 -0.246743 0.266488 -0.217505 0.310350 -0.107248 0.141918 -0.019915 0.038707 0.306037 0.322313 0.195235 -0.003375 -0.207986 -0.219429 0.338173 0.409158 -0.242329 0.439700 0.184462 0.184411 0.147858 0.214834 -0.353833 0.001445 -0.244117 -0.175552 0.024318 0.008104 -0.012367 0.018537 0.068189 0.038546 0.190526 -0.182174 0.483670 0.070215 -0.037451 0.463508 -0.326904 -0.041339 0.087177 0.215788 0.219852 0.332100 0.183472 -0.076871 -0.032859 0.488784 -0.255902 
statistical -0.132829 -0.222336 0.241226 -0.202563 0.293378 -0.093482 0.135154 -0.031872 0.050323 0.284740 0.304573 0.186073 -0.015522 -0.182714 -0.206281 0.300524 0.364826 -0.226220 0.406498 0.175482 0.163116 0.128460 0.196732 -0.320079 -0.008708 -0.244342 -0.162989 0.014730 0.016023 -0.003651 0.013263 0.047642 0.020516 0.180472 -0.165778 0.438502 0.071407 -0.046026 0.432018 -0.300379 -0.040514 0.066044 0.202264 0.205397 0.287024 0.180457 -0.058806 -0.027841 0.458899 -0.229960 
de -0.212333 -0.342361 0.390832 -0.298559 0.430344 -0.148757 0.216867 -0.017960 0.092427 0.404192 0.487949 0.296193 -0.029402 -0.271069 -0.295927 0.457943 0.573262 -0.335654 0.640736 0.282618 0.242769 0.198342 0.288082 -0.533256 0.031793 -0.364242 -0.244003 0.067048 0.009946 0.005097 0.021822 0.052389 0.047189 0.263168 -0.274865 0.703062 0.113498 -0.060210 0.680093 -0.493390 -0.052299 0.081888 0.304202 0.307992 0.444920 0.274557 -0.075419 -0.053304 0.690931 -0.333232 
user -0.149538 -0.232411 0.252120 -0.223335 0.296533 -0.093787 0.156408 -0.022393 0.050995 0.291946 0.313660 0.196023 -0.021292 -0.183769 -0.204618 0.330206 0.378095 -0.242978 0.439135 0.184823 0.160339 0.136610 0.220170 -0.356402 -0.003952 -0.250949 -0.160879 0.014468 0.018234 -0.006307 0.009028 0.046360 0.026036 0.194860 -0.166246 0.452263 0.077399 -0.047913 0.456890 -0.309150 -0.047815 0.076650 0.220760 0.216869 0.316726 0.182272 -0.077102 -0.024571 0.479563 -0.228976 
towards -0.143830 -0.255722 0.253321 -0.222892 0.311669 -0.095392 0.155808 -0.030348 0.042103 0.296007 0.322307 0.189049 -0.022340 -0.189929 -0.215792 0.329340 0.398850 -0.243385 0.427110 0.189621 0.183496 0.153915 0.215980 -0.345646 0.000059 -0.255481 -0.178696 0.022542 0.009412 -0.014281 0.010215 0.062804 0.038317 0.199141 -0.164186 0.469196 0.070980 -0.038551 0.458767 -0.319416 -0.056872 0.072674 0.227409 0.205831 0.314502 0.193987 -0.075083 -0.036602 0.488159 -0.251429 
p -0.153856 -0.257112 0.287819 -0.242167 0.337636 -0.122914 0.164237 -0.031320 0.044955 0.332601 0.371453 0.225104 -0.007294 -0.221127 -0.230810 0.374109 0.430529 -0.258755 0.485705 0.228290 0.180391 0.170267 0.238548 -0.404556 0.004877 -0.279496 -0.195984 0.045025 0.011902 -0.001022 0.015617 0.060838 0.025770 0.229002 -0.181233 0.510147 0.086327 -0.053163 0.510886 -0.359757 -0.034590 0.089738 0.232026 0.236714 0.350551 0.218074 -0.066569 -0.043386 0.552168 -0.258900 
n -0.185458 -0.342261 0.380376 -0.286378 0.430852 -0.146242 0.216333 -0.011661 0.088726 0.406137 0.465412 0.296051 -0.019713 -0.259220 -0.279248 0.468190 0.565910 -0.332294 0.641350 0.271325 0.233090 0.208074 0.299017 -0.514419 0.019779 -0.343414 -0.252169 0.057893 0.027612 -0.017425 0.026326 0.046728 0.032595 0.263746 -0.258764 0.680853 0.090482 -0.046229 0.656426 -0.481365 -0.047468 0.091182 0.318417 0.282410 0.434414 0.276064 -0.091917 -0.053847 0.680723 -0.316495 
text -0.150247 -0.244816 0.249807 -0.213615 0.297527 -0.109927 0.135993 -0.024161 0.055867 0.290004 0.311752 0.179054 -0.015657 -0.196555 -0.197266 0.320485 0.371962 -0.230244 0.419000 0.188196 0.168783 0.134627 0.209460 -0.337574 -0.014146 -0.238692 -0.168601 0.008598 0.009035 -0.001830 0.007951 0.062264 0.032585 0.190867 -0.167186 0.444643 0.075484 -0.043355 0.436740 -0.315070 -0.043816 0.077856 0.207778 0.206495 0.299812 0.193644 -0.076153 -0.018627 0.455588 -0.226641 
algorithms -0.149364 -0.247175 0.269920 -0.219770 0.327757 -0.116093 0.153159 -0.022526 0.045367 0.311996 0.357504 0.212230 -0.005694 -0.198344 -0.215451 0.342167 0.423895 -0.245399 0.469864 0.198991 0.185612 0.155471 0.231445 -0.385073 0.003025 -0.275997 -0.177240 0.023698 0.028071 0.000755 0.024154 0.056094 0.023581 0.205133 -0.182123 0.491462 0.075680 -0.052351 0.493752 -0.348599 -0.047263 0.081264 0.237674 0.237403 0.343921 0.196903 -0.079049 -0.036454 0.520578 -0.263684 
feature_extraction -0.129094 -0.224627 0.234410 -0.210385 0.282029 -0.095070 0.145824 -0.029967 0.050868 0.261852 0.298958 0.183833 -0.002082 -0.182017 -0.188000 0.300190 0.363298 -0.208910 0.408290 0.167035 0.156143 0.132562 0.200158 -0.327482 0.001461 -0.226880 -0.160261 0.010186 0.021178 -0.008054 0.013854 0.050779 0.021599 0.175404 -0.168208 0.433129 0.068746 -0.032422 0.429376 -0.297342 -0.041429 0.069406 0.199286 0.189360 0.301283 0.170893 -0.071985 -0.029350 0.453897 -0.232597 
weighted -0.141024 -0.230366 0.250570 -0.209063 0.283460 -0.089665 0.147262 -0.023529 0.052760 0.275673 0.311406 0.179358 -0.008286 -0.183818 -0.207326 0.309012 0.367083 -0.216961 0.423880 0.186276 0.178632 0.131414 0.213680 -0.343266 0.003873 -0.236661 -0.179092 0.010148 0.005630 0.000613 0.007801 0.050226 0.041442 0.186302 -0.167242 0.443100 0.063262 -0.035965 0.448272 -0.298161 -0.046493 0.076271 0.218633 0.210929 0.302379 0.177322 -0.066823 -0.027179 0.471647 -0.236524 
modeling -0.141672 -0.245762 0.262775 -0.209871 0.315957 -0.110346 0.156288 -0.014527 0.042757 0.298867 0.332035 0.199378 -0.009512 -0.204179 -0.205142 0.338117 0.384100 -0.244753 0.449217 0.194032 0.185594 0.143230 0.229584 -0.368336 -0.000101 -0.261795 -0.176520 0.013237 0.027480 -0.000627 0.008351 0.051960 0.023321 0.192041 -0.179044 0.460945 0.081949 -0.032285 0.470687 -0.329876 -0.053341 0.090945 0.223690 0.219757 0.328868 0.195680 -0.071399 -0.038776 0.490680 -0.239911 
estimation -0.137704 -0.254921 0.246801 -0.219241 0.314295 -0.110950 0.143772 -0.021633 0.049918 0.292166 0.325218 0.199267 -0.021174 -0.198903 -0.218374 0.337752 0.382429 -0.232936 0.432788 0.187921 0.181512 0.153625 0.217947 -0.363010 -0.010259 -0.264479 -0.177545 0.013956 0.018191 0.000643 0.014164 0.052312 0.040139 0.199261 -0.176471 0.460352 0.069469 -0.042445 0.455406 -0.318153 -0.042638 0.087759 0.228670 0.217835 0.314341 0.192699 -0.069850 -0.036939 0.487174 -0.239219 
optimization -0.144627 -0.234032 0.253558 -0.205644 0.307286 -0.109768 0.139257 -0.019298 0.058504 0.289100 0.316280 0.197901 -0.013855 -0.192097 -0.217810 0.333463 0.382424 -0.240535 0.428580 0.173979 0.161522 0.144113 0.219992 -0.343504 -0.003093 -0.253470 -0.175034 0.013650 0.025533 -0.011788 0.017925 0.064751 0.038389 0.198029 -0.156709 0.444432 0.066825 -0.032572 0.443463 -0.307126 -0.048530 0.082247 0.215526 0.200977 0.306358 0.186148 -0.059521 -0.035143 0.479098 -0.235253 
selection -0.161156 -0.271199 0.279625 -0.233420 0.315018 -0.102147 0.144775 -0.016486 0.057110 0.306115 0.344424 0.194405 -0.014369 -0.207118 -0.231749 0.360186 0.418278 -0.245178 0.467990 0.197151 0.185395 0.146693 0.220911 -0.372369 -0.006466 -0.261134 -0.188587 0.014900 0.014318 0.000987 0.011703 0.070467 0.029795 0.196645 -0.172020 0.493039 0.073477 -0.049293 0.488242 -0.347452 -0.043790 0.086517 0.239180 0.232106 0.337391 0.192512 -0.072402 -0.027626 0.504432 -0.255209 
event -0.147059 -0.229693 0.242572 -0.208248 0.304658 -0.107405 0.147435 -0.017902 0.041586 0.297175 0.315405 0.195230 -0.005322 -0.195503 -0.214689 0.329417 0.389628 -0.238529 0.417252 0.174909 0.171286 0.138703 0.210821 -0.351209 -0.005217 -0.250717 -0.173278 0.011165 0.008854 -0.008572 0.012991 0.062560 0.040481 0.181569 -0.164105 0.452178 0.073847 -0.037767 0.451269 -0.322137 -0.050709 0.074641 0.221912 0.197490 0.306717 0.178240 -0.070380 -0.024962 0.460431 -0.240862 
two -0.158662 -0.262937 0.258675 -0.231101 0.323320 -0.113455 0.142526 -0.017849 0.055261 0.307553 0.341671 0.203297 -0.002482 -0.203726 -0.218930 0.340467 0.404604 -0.239529 0.454156 0.182587 0.175701 0.154683 0.226266 -0.368463 -0.014224 -0.261436 -0.173153 0.031265 0.011180 0.000144 0.010862 0.055022 0.047044 0.202817 -0.185152 0.468372 0.074552 -0.043673 0.486124 -0.324888 -0.049338 0.078418 0.224613 0.230766 0.321642 0.189796 -0.078908 -0.034871 0.490132 -0.253774 
